<?xml version="1.0"?>
<opencv_storage>
<stage0>
  <maxWeakCount>36</maxWeakCount>
  <stageThreshold>-7.5979322195053101e-01</stageThreshold>
  <weakClassifiers>
    <_>
      <internalNodes>
        0 -1 70441 -7.6808489393442869e-04</internalNodes>
      <leafValues>
        6.4480876922607422e-01 1.1985018849372864e-01</leafValues></_>
    <_>
      <internalNodes>
        0 -1 20617 6.7321327514946461e-04</internalNodes>
      <leafValues>
        -1.4376659691333771e-01 4.1227939724922180e-01</leafValues></_>
    <_>
      <internalNodes>
        0 -1 70447 -2.5204091798514128e-03</internalNodes>
      <leafValues>
        3.5460534691810608e-01 -1.4690865576267242e-01</leafValues></_>
    <_>
      <internalNodes>
        0 -1 5697 -1.4945993898436427e-03</internalNodes>
      <leafValues>
        2.9415011405944824e-01 -1.7928792536258698e-01</leafValues></_>
    <_>
      <internalNodes>
        0 -1 4413 3.7000484298914671e-03</internalNodes>
      <leafValues>
        -2.1003502607345581e-01 3.1604278087615967e-01</leafValues></_>
    <_>
      <internalNodes>
        0 -1 70600 2.1204161457717419e-03</internalNodes>
      <leafValues>
        -1.4311288297176361e-01 3.2845586538314819e-01</leafValues></_>
    <_>
      <internalNodes>
        0 -1 78195 5.9426546795293689e-04</internalNodes>
      <leafValues>
        -1.4292220771312714e-01 2.8101214766502380e-01</leafValues></_>
    <_>
      <internalNodes>
        0 -1 50325 -5.2908114157617092e-03</internalNodes>
      <leafValues>
        2.2845438122749329e-01 -1.7196729779243469e-01</leafValues></_>
    <_>
      <internalNodes>
        0 -1 52331 -4.6744145220145583e-04</internalNodes>
      <leafValues>
        2.4818094074726105e-01 -1.6329447925090790e-01</leafValues></_>
    <_>
      <internalNodes>
        0 -1 58393 2.8396688867360353e-03</internalNodes>
      <leafValues>
        -1.3545165956020355e-01 2.8261163830757141e-01</leafValues></_>
    <_>
      <internalNodes>
        0 -1 64733 8.0398377031087875e-04</internalNodes>
      <leafValues>
        -1.4531174302101135e-01 2.3680733144283295e-01</leafValues></_>
    <_>
      <internalNodes>
        0 -1 64729 -4.6572842984460294e-04</internalNodes>
      <leafValues>
        2.6203778386116028e-01 -1.3450391590595245e-01</leafValues></_>
    <_>
      <internalNodes>
        0 -1 60795 -8.8831484317779541e-03</internalNodes>
      <leafValues>
        -5.4948067665100098e-01 6.3019245862960815e-02</leafValues></_>
    <_>
      <internalNodes>
        0 -1 53451 1.6148644499480724e-03</internalNodes>
      <leafValues>
        -1.4029775559902191e-01 2.6848095655441284e-01</leafValues></_>
    <_>
      <internalNodes>
        0 -1 49876 -2.7225129306316376e-03</internalNodes>
      <leafValues>
        2.4933102726936340e-01 -1.3079351186752319e-01</leafValues></_>
    <_>
      <internalNodes>
        0 -1 17809 9.5003540627658367e-04</internalNodes>
      <leafValues>
        -9.6881680190563202e-02 3.0864304304122925e-01</leafValues></_>
    <_>
      <internalNodes>
        0 -1 70026 -1.9090929999947548e-02</internalNodes>
      <leafValues>
        -6.5616524219512939e-01 5.3220380097627640e-02</leafValues></_>
    <_>
      <internalNodes>
        0 -1 21361 9.4791604205965996e-03</internalNodes>
      <leafValues>
        -1.0581646114587784e-01 3.1932464241981506e-01</leafValues></_>
    <_>
      <internalNodes>
        0 -1 63860 4.8638338921591640e-04</internalNodes>
      <leafValues>
        -1.2310089915990829e-01 2.6540991663932800e-01</leafValues></_>
    <_>
      <internalNodes>
        0 -1 61483 1.8126249313354492e-02</internalNodes>
      <leafValues>
        6.3399009406566620e-02 -5.8988261222839355e-01</leafValues></_>
    <_>
      <internalNodes>
        0 -1 69691 -1.9359322264790535e-02</internalNodes>
      <leafValues>
        3.3457374572753906e-01 -1.1908342689275742e-01</leafValues></_>
    <_>
      <internalNodes>
        0 -1 33855 -4.7199651598930359e-03</internalNodes>
      <leafValues>
        2.0409442484378815e-01 -1.5488423407077789e-01</leafValues></_>
    <_>
      <internalNodes>
        0 -1 33479 8.8645638898015022e-03</internalNodes>
      <leafValues>
        -1.0226865112781525e-01 3.1915557384490967e-01</leafValues></_>
    <_>
      <internalNodes>
        0 -1 70154 9.8830871284008026e-03</internalNodes>
      <leafValues>
        6.2773391604423523e-02 -5.5519270896911621e-01</leafValues></_>
    <_>
      <internalNodes>
        0 -1 38988 1.3440155889838934e-03</internalNodes>
      <leafValues>
        -1.5302753448486328e-01 2.0247453451156616e-01</leafValues></_>
    <_>
      <internalNodes>
        0 -1 60805 1.9135061651468277e-02</internalNodes>
      <leafValues>
        6.7638024687767029e-02 -4.8535794019699097e-01</leafValues></_>
    <_>
      <internalNodes>
        0 -1 19228 3.7378068082034588e-03</internalNodes>
      <leafValues>
        -1.0517524182796478e-01 3.1096345186233521e-01</leafValues></_>
    <_>
      <internalNodes>
        0 -1 63879 9.3804753851145506e-04</internalNodes>
      <leafValues>
        -1.5434899926185608e-01 2.0227086544036865e-01</leafValues></_>
    <_>
      <internalNodes>
        0 -1 19995 3.9520510472357273e-03</internalNodes>
      <leafValues>
        -9.4581224024295807e-02 3.3255055546760559e-01</leafValues></_>
    <_>
      <internalNodes>
        0 -1 71964 7.7188946306705475e-03</internalNodes>
      <leafValues>
        -1.2665089964866638e-01 2.4320761859416962e-01</leafValues></_>
    <_>
      <internalNodes>
        0 -1 57396 -9.9653974175453186e-03</internalNodes>
      <leafValues>
        -7.9999405145645142e-01 3.4248098731040955e-02</leafValues></_>
    <_>
      <internalNodes>
        0 -1 72864 1.1338580399751663e-02</internalNodes>
      <leafValues>
        -1.1080366373062134e-01 2.6722106337547302e-01</leafValues></_>
    <_>
      <internalNodes>
        0 -1 70569 -5.0152726471424103e-03</internalNodes>
      <leafValues>
        -5.5252462625503540e-01 5.5668573826551437e-02</leafValues></_>
    <_>
      <internalNodes>
        0 -1 27471 -1.1873455950990319e-03</internalNodes>
      <leafValues>
        2.3361296951770782e-01 -1.2386421114206314e-01</leafValues></_>
    <_>
      <internalNodes>
        0 -1 65060 3.7124025402590632e-04</internalNodes>
      <leafValues>
        -1.1975832283496857e-01 2.1153752505779266e-01</leafValues></_>
    <_>
      <internalNodes>
        0 -1 75020 6.0359912458807230e-04</internalNodes>
      <leafValues>
        -1.2196791917085648e-01 2.2959919273853302e-01</leafValues></_></weakClassifiers></stage0>
</opencv_storage>
